10 512
A0A076FFM5 -0.032245 0.0495347 -0.148836 0.122302 0.0128082 -0.00529789 0.0766613 -0.0829867 0.0749938 -0.0371767 -0.0611958 -0.0634985 0.1827 -0.108501 0.0726652 -0.0126459 -0.0531193 0.15963 -0.105236 -0.0320474 -0.0139968 -0.207059 -0.172727 0.167794 -0.0977149 -0.023105 -0.12708 0.173666 0.0410835 -0.0510216 0.13254 0.0377444 -0.265106 -0.0192271 -0.104941 0.0863324 -0.244467 0.0395601 0.0476159 -0.0638071 -0.0117076 -0.19704 0.0697312 -0.00818128 -0.00456243 0.0101093 -0.0942585 -0.0348926 0.103811 -0.111984 -0.129959 -0.0346389 -0.0257888 0.117356 0.0375212 0.102526 -0.16874 0.0589093 0.0275672 -0.010321 -0.0543191 0.150202 -0.111927 0.0373131 0.0999925 0.0951212 -0.000760506 -0.112841 -0.0245285 -0.162279 -0.0209997 0.0519824 -0.0658196 -0.00505324 0.0145299 -0.0642412 0.0430194 -0.00357889 -0.0908026 0.07097 0.0362221 0.148088 0.0988837 -0.0498384 -0.126974 -0.0888746 0.0481991 0.167061 0.127968 0.00400835 -0.0736151 -0.183195 -0.0171898 -0.182486 -0.0175807 -0.0728117 -0.0123715 0.136253 -0.0670992 -0.0382295 0.158996 0.195888 0.0710242 -0.0714651 -0.0059485 -0.0741005 -0.0730288 0.0361855 0.0406641 0.135352 0.14641 -0.0543828 -0.0173048 -0.012622 0.125128 -0.0748748 -0.196195 -0.038253 0.0673929 0.064503 0.0255473 -0.0857471 -0.20698 0.072672 0.095572 0.0151707 0.0211517 -0.020913 -0.236133 -0.0575595 -0.0316697 0.0910033 -0.0727482 -0.0353789 0.101927 0.0527681 -0.101874 -0.252585 0.155433 0.143603 -0.380229 -0.1473 -0.0221819 -0.181923 0.133867 0.116147 -0.0156632 0.117174 0.204636 0.107007 0.15982 -0.167508 0.00732147 0.210982 0.0494402 -0.116561 -0.249304 0.0349963 0.199115 -0.0502211 -0.00195481 -0.150221 -0.185184 -0.0839675 -0.0123267 -0.166616 0.063623 -0.107848 0.0508499 0.112379 0.172279 0.0749151 0.145489 0.0849096 0.0438075 0.0961673 0.0672322 0.263213 0.0394703 -0.104083 0.0307984 -0.0885691 0.110708 -0.285651 -0.137081 0.0791976 -0.239757 -0.0916135 0.101169 -0.0409008 -0.00925676 -0.00184929 -0.00602428 -0.0527827 0.110175 -0.0565409 0.282584 -0.0429444 -0.0221722 -0.0112093 -0.220941 -0.150424 -0.0326391 -0.120362 0.0344083 -0.102385 0.00322413 -0.0334837 0.0120205 -0.103685 -0.146353 -0.140336 0.0208155 0.043622 -0.183381 -0.158646 0.0945028 0.0234906 0.0672169 0.0530826 -0.0484222 0.0519483 -0.0330155 0.111425 0.149789 -0.00738746 0.036719 0.0053507 -0.301941 -0.0196561 -0.0700481 0.20107 0.0565784 0.0468648 0.120038 -0.0847196 0.0775208 0.0918119 0.111438 0.042766 0.0306116 -0.108801 -0.0289536 -0.210993 0.048461 -0.179282 -0.0267284 0.0188564 -0.0823191 0.0642123 -0.0402772 -0.210807 -0.0489237 0.0410862 0.0981016 -0.0627077 0.0935394 -0.104241 -0.0277225 0.0444992 -0.0666172 -0.0501576 0.153825 0.140731 -0.112797 0.195212 0.186966 0.0528881 -0.00123319 0.196145 0.165684 -0.00452814 -0.0310803 0.190613 0.00678867 -0.178578 0.208215 -0.146254 0.126131 0.13051 0.0115312 0.0247035 -0.0478142 0.110496 0.0540746 0.206342 0.022886 -0.0599008 0.0773617 0.123657 -0.0756343 -0.119859 -0.0676954 -0.292721 -0.143471 0.03607 -0.0476042 0.110443 0.0935483 0.0514285 -0.0646507 0.141421 0.103856 0.103468 0.111696 0.135749 0.251893 0.0678212 0.0984073 0.140624 0.0396352 0.00908287 0.127101 -0.029507 -0.0710346 -0.126145 -0.00853181 -0.165404 -0.156997 0.0567637 0.0690881 0.0896742 0.0446793 -0.0622458 0.150853 0.119685 0.0352288 0.0579703 0.178109 -0.110415 0.234661 0.208133 0.0834027 -0.0225551 0.0982711 -0.0532131 -0.160103 -0.06127 -0.0263688 -0.12877 0.139156 0.137781 0.138821 0.00234309 -0.270989 0.14219 0.135137 -0.0121001 0.0725756 0.161868 0.246064 -0.0382848 -0.202764 0.101806 -0.0411944 0.070235 -0.0401633 -0.0994157 0.0306519 -0.096216 0.093312 0.0139243 -0.0382232 -0.128143 -0.0333594 0.0598353 -0.0704469 -0.0468936 -0.0601883 -0.088784 0.165593 0.108061 -0.0258494 0.0265553 0.0114799 0.0662754 -0.0852248 0.0228501 -0.0669811 0.00322546 -0.0120346 0.11999 -0.100696 -0.0850443 -0.0715229 -0.000490017 0.061816 0.1206 -0.131224 0.0369725 -0.284651 -0.132055 0.0283659 0.0493782 0.105307 0.0568037 -0.0589393 -0.285006 0.0669033 -0.0812247 -0.0643768 0.00462296 0.0219524 -0.0414194 -0.0391708 -0.160249 -0.0372034 0.00467915 -0.118387 -0.00933228 -0.0108422 0.100973 0.132231 0.00915655 -0.0349472 0.126271 -0.119073 -0.0879209 -0.0426653 0.0641035 -0.151324 -0.135918 0.0326151 -0.0147439 0.0188496 -0.15084 0.0210695 0.0853086 -0.00223112 -0.0605611 0.0244912 -0.120783 -0.00848505 0.0047763 0.0185937 -0.132676 -0.040429 0.0409575 -0.166022 0.0329455 0.0188575 0.147679 -0.0791642 -0.0287064 -0.145088 -0.227212 -0.00481894 0.125518 0.119012 -0.0808139 0.0167367 -0.115097 0.0185817 -0.0722623 -0.056247 -0.15039 0.113298 -0.0451907 -0.0594461 -0.0409294 0.0848145 0.133683 0.0125237 -0.179035 -0.0552374 -0.15642 -0.0409683 -0.00662633 0.120342 0.131549 0.0116777 0.0102707 -0.077231 -0.0626145 -0.113829 -0.260529 -0.00201363 -0.00104818 -0.0970671 -0.0449742 0.222266 -0.0843652 -0.100792 0.157878 0.0895956 0.0437142 -0.0694695 -0.0161024 0.157307 0.047829 -0.0704545 -0.061081 0.0112409 -0.128926 0.00112268 -0.0831624 0.0582713 0.00268232 -0.0119037 0.138996 0.0206562 -0.139037 -0.136848 0.106163 0.0552922 0.0862025 0.0748639 -0.0989039 -0.0705001 0.172363 -0.0891017 -0.0169736
A0A517FNC5 -0.0237627 -0.0522646 -0.343094 0.139869 -0.140567 0.0383402 -0.0737617 -0.209664 0.0337223 -0.0536989 0.0673436 -0.0798636 0.197575 -0.0533215 0.0620916 -0.0569013 -0.300622 0.435503 -0.132427 -0.0644484 0.151079 -0.408108 -0.340685 0.418368 -0.248896 -0.161527 -0.259199 0.241496 -0.0513045 -0.0176945 -0.0320726 0.0496991 -0.432947 0.053196 -0.104311 0.119157 -0.253813 0.028574 -0.0111407 -0.146784 0.214933 -0.140555 0.303677 -0.223284 -0.130476 -0.135343 0.0432275 -0.121185 0.256397 -0.0584682 -0.106429 -0.072464 0.0388109 0.228801 0.059528 0.351701 -0.232835 0.0453795 -0.234108 -0.0575774 0.0264884 0.176697 0.000192402 -0.0503134 0.143508 -0.00480191 -0.0935279 -0.112333 -0.111883 -0.28993 -0.301053 0.0585828 -0.215335 -0.144636 0.22411 -0.119278 0.0995899 -0.103029 -0.199205 0.272764 0.0761665 0.313421 0.424735 -0.0468883 -0.203731 -0.107772 0.210111 0.156431 0.238133 -0.00809916 -0.0922048 -0.0495116 -0.0310383 0.0509384 -0.293647 -0.0305116 -0.0218268 0.253394 -0.114241 0.137358 0.128109 0.414679 -0.180817 -0.208804 -0.0493433 -0.248278 -0.195297 0.125614 0.10426 0.203291 0.107219 -0.0080436 -0.0312687 -0.0495611 0.374942 -0.21039 -0.342667 -0.0162994 0.130523 0.204057 -0.0248277 -0.211844 -0.37301 -0.00908336 0.221407 0.00368573 0.156118 -0.092584 -0.260574 -0.0129207 -0.0809566 0.0330077 -0.0469513 -0.00992174 0.169468 -0.0947116 -0.172882 -0.471664 0.213672 0.155158 -0.398992 -0.150319 0.0071309 -0.23313 0.195029 0.215573 -0.00173607 -0.0113915 0.394228 0.376465 0.170965 -0.0863581 0.0151811 0.0124441 -0.087336 -0.104034 -0.247132 0.0184089 0.246323 -0.088248 -0.116631 -0.170782 -0.260753 -0.334069 -0.00959512 -0.0819488 0.173949 -0.197094 0.164944 0.34209 0.248038 -0.111948 0.437256 -0.0497076 0.055959 0.0173984 0.214164 0.518331 0.0964449 -0.166427 0.120366 0.0391579 0.167915 -0.308788 -0.306417 0.076872 -0.236766 0.0200613 0.0447151 0.154668 -0.0270156 -0.144315 0.440243 -0.0701094 0.398752 -0.148899 0.389635 -0.0671578 0.0279643 0.0174385 -0.404334 -0.0249531 -0.111009 -0.211494 0.161756 -0.223704 0.113529 -0.0749273 0.252585 -0.254105 -0.102402 -0.253378 -0.0287677 0.140904 -0.330276 -0.205974 0.151541 -0.00572419 0.0974951 0.0666189 -0.147897 0.10153 0.00885233 0.0546218 0.366042 -0.0680311 0.0290176 -0.121239 -0.474173 -0.193292 -0.0759024 0.334289 0.0156726 0.00590654 0.1432 -0.127879 0.194321 0.129169 0.240964 0.176146 0.193859 -0.242252 -0.0496531 -0.218613 -0.0700504 -0.0575289 -0.0358266 0.0588131 -0.0571388 0.0740662 0.115633 -0.20522 -0.160055 -0.0989005 0.0233376 -0.203213 0.205393 -0.21828 -0.0835983 -0.0591245 -0.0224838 -0.127221 0.214822 0.240615 -0.122464 0.233663 0.176425 0.154448 0.135163 0.197001 0.166212 0.0398337 -0.131914 0.14805 0.253728 -0.0963529 0.158305 0.0304187 0.177552 0.179937 0.0315668 0.0983429 -0.0424944 0.10697 0.143568 0.0725131 0.103165 -0.221727 0.181953 0.326936 -0.0698564 -0.108132 0.019758 -0.25077 -0.100839 -0.0402008 0.0456419 0.157523 -0.0320873 0.330061 0.158671 -0.0303078 -0.0417008 0.0110645 -0.0696699 0.144111 0.282822 0.0315335 0.10356 0.0539378 0.166855 -0.0676375 0.15516 -0.19077 -0.0857587 -0.257408 -0.0710211 -0.18911 -0.15133 0.03892 0.0758002 0.167112 0.0434062 -0.315816 0.285319 0.0481578 0.0697565 0.0390914 0.0372357 -0.161517 0.474964 0.211806 0.0870542 0.0718365 0.0699664 -0.0692903 -0.192476 -0.0793378 -0.0997255 -0.163677 0.0744877 0.0181764 0.0669736 0.0684683 -0.103507 0.154296 -0.00205813 0.0510364 0.22933 0.00219927 0.192547 0.0853652 -0.124477 0.192049 -0.203918 0.170083 -0.0858677 -0.0778933 -0.11649 0.147447 0.212699 -0.120624 0.0810696 -0.148121 -0.153294 0.00380216 -0.003686 0.00149071 -0.21996 0.0581851 0.23339 0.0490945 0.099501 -0.121885 -0.0187095 0.247405 0.0761672 -0.0684792 0.0216755 -0.130735 0.0657522 -0.143809 -0.0357849 -0.0269207 -0.0718971 -0.0663969 -0.110452 0.122501 -0.0615211 0.0139343 -0.118378 -0.0397496 0.0248243 0.184628 0.20238 -0.216349 0.0985906 -0.0945851 0.233067 -0.0231413 -0.103074 0.121139 0.102413 0.147017 -0.0729169 -0.161879 -0.102404 -0.254725 -0.141219 0.112453 -0.0936706 0.187835 0.131498 -0.0344642 -0.0429574 0.196738 -0.320402 0.0431107 -0.0254569 -0.116371 -0.135723 -0.074549 0.0643808 0.0840284 0.104898 -0.0632047 0.181905 0.350632 0.112886 -0.280095 0.0684564 -0.162077 0.0697706 0.0333455 0.00540286 -0.240887 -0.208394 0.0747403 0.00219389 -0.0347938 0.0171853 0.0730061 -0.114959 -0.160065 0.0744867 -0.185449 -0.0870924 0.0883788 0.306335 -0.170039 0.0222183 -0.0689186 0.0690067 -0.012745 0.12224 -0.0489151 0.0725675 0.051127 -0.0970943 0.215492 0.0847012 0.312288 0.128909 -0.136248 -0.132814 0.0963064 -0.0460806 0.159927 -0.126662 0.000513238 0.226317 0.0684578 -0.150077 -0.249776 0.145081 -0.288215 0.154885 0.037294 -0.0625665 -0.128037 0.0351762 -0.0193059 -0.0545163 0.0474372 0.0666209 0.0739636 0.135405 0.0812446 0.194611 0.19336 -0.063325 -0.0127507 0.0888323 -0.0879555 0.0194517 -0.0467916 0.187217 0.16474 0.0165374 0.0906534 -0.00118864 -0.241109 -0.0257007 0.175707 -0.0148566 0.227606 0.000557945 -0.176153 -0.0716871 0.214125 -0.093975 -0.121079
A1A699 0.0499614 0.322989 -0.124402 0.128284 -0.00440969 -0.00898307 0.0517419 -0.141154 0.311107 -0.170071 -0.0818636 -0.0023316 0.188837 -0.273755 -0.0496716 -0.0289894 -0.0969314 0.414469 -0.169922 0.0227725 0.0154894 -0.256265 -0.123399 0.374685 -0.0875812 0.000547233 -0.106868 0.0636068 -0.0644106 0.00137326 0.107209 -0.0270367 -0.277678 0.182572 -0.0897476 0.037319 -0.198202 0.136105 0.155502 0.0694484 -0.0209072 -0.101788 -0.00945933 -0.0509792 -0.00356171 -0.0271514 0.145669 -0.150269 0.159144 0.0485527 -0.203088 0.00430554 0.0489446 0.275193 -0.0739414 0.0967218 -0.0364841 -0.109242 0.0174845 2.90632e-05 -0.0197233 -0.0231189 -0.113572 -0.0749416 0.11116 0.00595592 0.0155121 -0.326337 -0.0662137 -0.276135 -0.0593639 -0.170248 -0.046901 -0.3267 -0.0118513 -0.201435 0.216883 0.0107596 -0.0893535 0.0908212 -0.0428221 0.279286 -0.00307554 -0.231519 -0.272678 0.143169 0.07376 -0.165063 -0.0699014 0.00224764 -0.000508218 -0.0789784 -0.0549029 0.093943 -0.0893486 -0.02469 -0.0639841 0.0890482 5.95534e-05 -0.00741881 0.202697 0.0358574 -0.210396 -0.255753 -0.0983746 0.0255588 -0.28457 0.10324 -0.121257 0.125807 -0.114803 -0.0828044 0.149397 0.0697589 -0.0940405 -0.0401115 -0.267102 0.176534 0.0331209 -0.097477 -0.153721 -0.223698 -0.0390673 0.0343825 0.114549 -0.0234219 0.0582325 0.253742 -0.0694336 0.0165239 0.0625004 0.0268565 0.00102776 0.177746 -0.151879 0.191461 0.195807 -0.239666 -0.175168 0.284326 -0.499307 0.215557 0.0161899 0.00924007 0.0397807 0.168157 0.107621 -0.00905601 0.191015 0.168461 0.0369264 0.04964 -0.0263658 -0.0803647 0.141262 -0.387849 -0.181596 -0.0989 0.158292 -0.19148 0.0581467 0.163977 -0.0455356 -0.0645134 -0.0663491 -0.305771 0.116032 -0.00441621 -0.180956 -0.145151 0.160996 0.064938 0.0954855 0.0982763 0.199125 -0.270845 0.223487 0.259182 0.108148 0.097 0.108501 -0.0578864 0.144005 -0.361403 0.0154813 0.0525555 -0.281084 -0.221185 0.176455 -0.00707041 0.162411 -0.0846904 0.220247 -0.124967 0.302899 -0.167081 0.485553 -0.0433009 -0.0317591 -0.149715 -0.386028 -0.295807 -0.0409266 -0.177012 0.126166 -0.24611 0.151607 0.0499721 0.0358647 0.0513141 -0.281576 -0.111297 0.148608 0.0689025 -0.130343 0.0636562 0.102868 0.0511697 0.185702 0.0895435 -0.0319431 -0.0691917 0.0612041 0.114577 0.124812 0.201627 -0.0372662 0.230947 -0.192695 -0.0186759 -0.134019 0.203862 0.16877 0.150587 0.192878 0.126711 0.0248014 -0.169332 0.158353 -0.1612 0.0238403 -0.212834 0.0378349 -0.306521 -0.013227 0.231808 0.128598 -0.203029 -0.330328 0.00474095 0.357044 -0.0268791 -0.231216 0.0435987 -0.152843 0.107528 -0.0163281 -0.00354112 -0.104851 -0.0930911 -0.286698 0.0633233 0.17845 0.0981628 0.0345439 0.00978845 0.113031 0.16177 -0.0843709 0.339049 -0.0169846 0.14198 -0.159791 -0.100049 0.209881 -0.383017 0.109892 0.0434885 0.303939 -0.0265088 0.22434 0.123839 -0.165679 0.0795257 -0.103301 -0.00776616 -0.227298 0.115345 -0.0487156 -0.105318 0.0503953 0.144931 -0.145535 -0.0612172 -0.193937 -0.252463 -0.0666664 0.0141118 0.27164 -0.0163991 -0.0921136 0.0757233 0.0853989 -0.128895 0.307923 0.143838 0.267455 0.101114 0.0186837 0.282499 0.00533504 0.136473 0.0693487 0.00341041 -0.0420626 -0.241616 -0.208635 -0.367883 -0.148218 0.0344526 -0.0147657 -0.0789774 -0.238339 0.0109735 0.19726 0.211758 0.117079 0.345018 -0.0780059 0.109864 0.122522 0.050946 0.134253 0.182075 -0.0835743 0.0758284 -0.0340965 -0.011967 0.0490391 -0.17861 0.170907 0.160618 -0.0559359 -0.190072 -0.256606 0.312349 0.207906 -0.203535 0.112764 -0.0689526 0.097013 -0.100266 -0.178151 0.0597363 -0.0471074 -0.0983384 -0.100534 0.0195458 -0.0049719 -0.138091 0.102043 0.0716066 -0.203819 -0.0324124 -0.128537 0.0558792 0.128032 -0.126016 -0.00724948 -0.0398291 0.114221 -0.303342 0.0239303 0.155925 -0.201461 0.0908041 0.0391359 -0.246314 0.0519864 -0.142521 -0.171183 -0.119729 -0.0762721 -0.109307 0.12965 0.117649 -0.100708 -0.00794048 -0.121169 0.101115 -0.147347 0.0454133 -0.0260786 0.0871257 0.0857042 0.176903 0.040884 -0.443198 -0.0393456 -0.138751 -0.18494 -0.119276 -0.186096 -0.232758 -0.0830491 -0.151992 0.140681 0.0237541 -0.141895 0.0362369 -0.0722438 0.138019 0.165075 -0.0930978 0.0399756 0.0383027 -0.267257 0.264703 -0.33167 0.0190315 -0.21249 -0.0124054 -0.00308651 -0.190069 -0.021604 -0.331173 -0.0183283 -0.104724 -0.173873 -0.0671212 -0.0981511 0.194879 -0.069276 -0.065729 0.0288532 0.0961725 -0.0120188 0.142383 0.160272 0.15783 -0.0166738 -0.0933712 -0.0717601 0.0712484 -0.0209329 -0.133398 0.284101 0.0179702 0.0614478 -0.252234 -0.00881043 -0.0234831 -0.143646 -0.104547 -0.0827084 -0.0205279 0.0256126 -0.0250016 -0.00122383 -0.0177832 -0.00593971 -0.0882247 -0.170965 -0.0952538 -0.23295 -0.0607497 -0.0741229 -0.0835915 0.0333486 0.0691921 0.162214 -0.0214291 -0.0368229 -0.053393 -0.101267 -0.55062 0.0656254 -0.148763 -0.111097 0.0782399 0.14546 -0.246076 -0.0786569 0.448073 -0.0015774 0.00914948 -0.0144803 0.00774765 0.149629 0.230239 0.156124 -0.129559 -0.00745167 0.0532351 0.0631622 -0.0454361 0.0469576 0.123363 -0.0240674 0.128157 -0.0231537 -0.294621 -0.159634 -0.0243086 -0.0746754 0.307261 0.0564121 -0.184259 -0.0603527 -0.0377097 -0.289063 -0.0766336
AC1481523_FG001 0.00039944 0.103953 -0.14521 0.0301077 0.0976139 0.0148134 0.232709 -0.156878 0.15859 -0.102756 -0.0491528 0.123909 0.197302 -0.110839 -0.136435 -0.0569069 -0.0268071 0.142913 -0.0821876 -0.0949064 0.0778598 -0.224511 -0.0483526 0.286174 0.169915 -0.0660473 -0.0674465 0.138427 0.0430898 -0.0253282 -0.0136309 -0.0510441 0.0379031 0.165613 -0.2054 0.122851 -0.226411 0.135874 -0.0446566 -0.0492709 -0.0490628 -0.0842066 -0.0847545 0.0484943 -0.0603265 0.0320763 -0.165619 0.0388879 0.141556 0.038925 -0.190292 0.0563807 0.0632254 0.180661 0.0609467 -0.00547459 -0.0539108 -0.0242988 -0.0414011 -0.106757 -0.0766318 0.231896 -0.157618 0.0449256 0.0612142 -0.0719361 0.0575453 0.068003 -0.0249027 -0.307921 0.0908962 -0.0136876 0.121595 -0.0274858 0.163355 -0.0156735 0.00545922 0.00097377 0.0115762 0.183147 0.0519636 0.268315 0.0130681 -0.00996424 -0.0962287 -0.0214682 -0.190782 0.00981669 0.0931573 0.0153245 0.0718408 -0.133905 0.0342228 0.0596057 -0.127408 -0.0681463 0.0916743 0.0435677 0.0264187 -0.0132441 0.0174613 0.325913 -0.110842 -0.284805 -0.150676 0.105679 -0.0279635 -0.0495294 -0.0401649 0.122755 0.180608 0.107374 -0.022246 -0.133361 0.14457 -0.0058175 -0.0959291 0.00196199 0.145886 -0.118103 -0.0556686 -0.151327 -0.211048 0.00309845 0.101498 0.190343 -0.0468079 -0.104247 0.0440106 -0.0472043 -0.13993 0.154212 0.117756 0.00701876 -0.0525593 0.175826 0.0613227 -0.163526 -0.168158 0.0266675 -0.308023 -0.0960697 0.00610113 0.00766893 0.0147877 0.121785 -0.093209 0.0315873 0.119544 0.05228 0.181155 0.0530051 0.0528537 0.110688 -0.13942 -0.0715346 -0.191544 -0.159554 0.102588 -0.179109 0.190568 -0.0940831 -0.110228 -0.0978751 -0.0980517 -0.235306 0.0818422 -0.00988226 0.0512546 -0.238863 0.241721 0.246488 0.156772 -0.0294019 0.0306288 0.095595 0.206645 0.400415 -0.0663878 0.00441692 0.0672148 -0.102258 0.128331 -0.0998433 -0.132636 0.0328428 0.0573029 0.00540172 0.174162 0.0475387 0.0375317 -0.123101 -0.0939579 -0.0582571 0.0846615 -0.133892 0.34516 -0.124176 0.0560705 3.49944e-05 -0.0673858 -0.121455 -0.126734 -0.167701 0.0232525 -0.262006 -0.0683394 -0.0166277 0.129671 -0.0161976 -0.0996548 -0.160249 -0.0137895 -0.0469274 -0.139494 -0.103753 0.107455 -0.0592764 0.0315773 0.0945528 -0.0412684 -0.0524068 -0.0472072 0.148306 0.041232 -0.0941582 -0.00688611 0.0424821 -0.190143 -0.27722 0.221873 0.158701 0.147671 0.118125 0.151131 -0.0631623 -0.0273031 0.0679734 0.117262 0.047666 0.103157 -0.19213 0.0972096 -0.0803903 0.159351 0.0711767 0.0713319 -0.0824549 0.154179 -0.109799 0.0202457 -0.275328 0.0771663 -0.125346 -0.0956336 -0.157968 0.0780515 0.0394409 0.054211 0.00519829 -0.14236 -0.031341 0.0772539 0.0642467 -0.213441 0.195027 0.0969494 -0.110533 0.122979 0.124146 0.136375 0.0672507 -0.233851 0.0600874 0.16026 -0.275228 0.119937 -0.107267 0.335254 0.244538 0.0182375 0.251903 -0.0430316 0.110079 0.24045 0.0897754 -0.0786458 -0.23499 0.108183 0.0355748 0.0232137 0.0230888 0.141829 -0.175123 -0.0901497 0.059905 0.135705 0.00073661 0.213222 0.158799 -0.152591 0.104512 -0.111947 0.101945 -0.105966 -0.193056 0.290461 0.00270073 0.179809 0.0685484 0.0731429 -0.0290199 0.195074 0.0276145 -0.00563929 -0.147126 -0.0539456 -0.000928911 -0.394465 -0.140742 0.130779 0.0529259 -0.0139121 -0.0624536 0.0957128 0.000424019 0.0284195 -0.000617605 0.252881 -0.242432 -0.0120788 0.0653589 -0.0348179 -0.00298129 -0.0107805 -0.0478083 -0.122442 -0.048409 -0.0568758 -0.0755382 0.166983 0.129865 0.0645612 0.0299042 -0.282599 0.128487 0.0735473 0.0317114 0.0622748 0.22609 0.175843 -0.0108398 -0.151993 0.250859 0.199734 0.0192413 -0.0528028 -0.0230047 -0.0150874 -0.143943 -0.0112838 -0.142882 -0.056632 -0.241377 0.053896 -0.0156232 0.0988067 -0.0350377 -0.0798921 -0.111244 -0.0709133 0.135844 -0.0708312 0.0489246 -0.0302636 0.106227 -0.0784388 -0.0637121 -0.0703673 -0.128934 0.00456256 -0.0325991 0.101659 0.0822467 0.036123 0.280081 -0.112845 0.142362 -0.16413 -0.0506545 -0.371001 0.0146276 0.0599283 -0.083757 0.000368589 0.0737069 -0.0757761 -0.303974 -0.0382088 -0.0252305 -0.0740468 -0.0326913 -0.015014 -0.0222184 -0.21611 -0.150937 -0.0939635 -0.0578014 -0.167927 0.039407 -0.178615 0.208566 0.212961 0.0951526 -0.235923 0.231963 -0.0939383 -0.106949 0.0184492 0.102136 -0.369525 -0.132548 -0.106044 -0.142129 0.0406578 -0.202348 -0.00190719 0.222192 -0.0929436 -0.0875975 -0.0433062 -0.0616588 0.0571683 -0.0332602 0.0520638 -0.0261641 -0.215394 0.218598 -0.128767 -0.171291 0.192312 -0.0054651 -0.0856106 0.0415235 -0.117167 -0.115676 0.00502795 0.212448 -0.045941 0.0266869 0.0902969 -0.0558548 0.0772589 -0.22878 -0.188107 -0.224509 0.145099 0.0747262 -0.197675 0.248228 0.121567 0.189609 -0.0700893 -0.0502315 -0.099435 -0.186421 -0.059456 -0.0683268 -0.0312992 0.14323 0.211212 -0.0146569 -0.155568 -0.0896702 0.00713326 -0.118098 -0.155217 0.177811 0.0425628 -0.25528 0.0834002 -0.0561036 -0.0562578 0.0659545 0.175061 0.0755311 -0.046272 0.163597 0.324894 0.0614747 -0.206008 -0.0301372 -0.133016 -0.151148 -0.040239 -0.162695 0.039242 0.115455 0.102027 -0.0308379 -0.0340009 -0.345323 -0.0344142 -0.0399382 -0.0795183 -0.0170211 -0.103163 0.0978232 -0.0108358 0.157418 0.0847584 0.094209
B9TSP7 0.0719509 0.121534 -0.0167398 0.150167 0.0161263 -0.137755 -0.0111694 -0.0298291 -0.0582901 0.0155529 0.07021 -0.0452028 0.104861 0.0840442 -0.0290111 0.159318 -0.160321 0.245174 -0.0692931 -0.0991118 -0.00859929 -0.252078 -0.240796 0.0491375 0.037232 0.0611604 0.109843 -0.0234309 0.0990507 -0.0691847 0.111728 -0.0413645 -0.15405 0.282511 -0.073185 -0.00824056 -0.174623 -0.0398224 0.075626 0.174564 -0.0398217 -0.13451 0.166853 0.0599357 -0.174487 -0.0432452 -0.0872026 -0.109648 0.0407116 -0.0676888 -0.244468 -0.114022 0.095875 0.207369 0.0636897 0.0705322 -0.0390183 -0.0696968 0.0330567 -0.134951 -0.214018 0.0334751 -0.18659 -0.0414294 0.0676034 0.0349445 0.0461748 0.0440499 -0.131726 -0.0126899 -0.0927999 0.0237087 0.194605 0.0371457 -0.0678056 0.0723111 0.0113666 0.0031522 -0.0809389 0.164181 -0.0844717 0.166741 0.0451106 -0.150834 -0.15778 -0.0932105 0.128222 -0.03404 0.0855885 0.0154842 -0.069537 -0.0414791 -0.0566194 -0.25979 -0.214963 -0.0631061 -0.0560994 0.122701 0.0558804 -0.00770825 0.152589 0.108515 0.0736242 -0.0118721 -0.0368201 0.0294597 -0.0645227 0.18553 0.00395734 -0.112157 0.0254424 -0.0183638 0.0589445 -0.181531 -0.0372141 -0.16754 0.087277 -0.153315 -0.0395244 0.017225 -0.103688 0.0112952 -0.0445931 0.157667 0.0417295 -0.107056 0.0879652 -0.12279 -0.0319551 -0.104425 0.0720207 0.126585 -0.156281 0.115136 0.187198 -0.0084211 -0.0146817 -0.212128 0.123117 -0.109849 -0.36885 -0.0953451 0.102267 -0.140096 0.155501 0.515798 -0.14948 0.131548 0.048401 0.195797 0.224426 -0.184223 -0.0104602 0.362291 0.0840856 -0.0611108 -0.219826 -0.228015 0.142624 -0.176004 0.161889 -0.0529614 -0.170755 -0.205588 -0.153866 -0.218125 -0.00093164 -0.103576 -0.22079 -0.18371 0.305609 -0.0208631 0.112776 0.0493529 0.150895 -0.00223426 0.175348 0.317818 0.0953759 -0.0859492 0.0713095 -0.0458813 0.280813 -0.408094 -0.112346 0.0453786 -0.247536 0.0336527 -0.00256355 0.160228 0.00910614 -0.138452 0.206716 -0.0299717 0.326336 -0.0449732 0.196903 -0.33474 0.0797713 -0.100862 -0.165575 -0.176686 -0.0519702 0.0372835 0.203225 -0.226923 0.0281558 -0.0670584 -0.148844 -0.0598766 -0.258765 -0.109768 -0.0573111 0.183437 -0.222893 0.0770141 0.274805 0.141091 -0.0904924 0.124131 -0.0213306 0.0978395 0.119219 0.0177757 0.0434893 -0.076303 -0.0135239 -0.224684 -0.126512 -0.116319 -0.0871782 -0.0765196 0.0467661 0.0142607 0.0366526 0.0607257 0.043391 0.113154 0.0933168 0.110048 -0.120792 -0.14 -0.127691 -0.131338 0.0622493 0.0827109 0.0163637 -0.0817688 0.125442 -0.046224 -0.0178288 -0.0998948 -0.0711928 -0.0087671 0.00108993 -0.0827948 0.154638 -0.0433525 0.0343743 -0.00310104 -0.0951459 -0.00573777 0.0491354 0.201983 -0.158664 0.0567196 0.0650931 0.0799557 0.0856052 -0.055444 -0.0255006 -0.0677556 0.123265 0.132611 -0.0568799 -0.160128 0.332846 -0.0983933 -0.0249089 0.112653 0.00428004 0.160147 0.0281747 0.195787 0.114756 0.148705 0.0324956 0.12287 0.138597 -0.081078 -0.0779721 -0.0724857 -0.00921173 -0.23177 -0.202649 0.0452199 -0.00768813 0.0760767 0.199259 -0.0854005 -0.182859 0.0700438 0.083371 0.28089 0.166553 0.0884241 0.119589 0.0448798 0.084384 0.113165 -0.100264 0.0448053 0.0350561 0.0617278 0.0482765 -0.171472 0.0212424 -0.0313129 0.108183 -0.0690358 0.0636569 0.178253 0.0561082 -0.0241059 0.264677 -0.0746993 0.0414541 0.0818811 0.0303975 -0.0890062 0.0796634 -0.0924488 -0.116059 -0.0631063 0.159613 -0.139948 0.11475 -0.0138696 -0.0257917 -0.0770044 0.121672 0.0243233 -0.0366281 -0.0279087 -0.162886 0.178413 0.00445482 0.12782 -0.0244789 -0.0769467 0.228559 -0.0132094 0.0315104 0.172346 0.0344095 0.249284 -0.0373815 0.0437604 0.0638073 -0.0623177 -0.00418186 0.160447 0.101575 -0.211724 0.0187072 0.0346041 0.0758603 -0.114295 -0.228568 0.0183346 -0.026564 -0.119663 -0.0337887 -0.00871101 -0.000508215 0.18119 -0.226003 0.0188091 0.0248577 -0.181839 -0.0165808 -0.0768561 -0.147067 0.0914089 -0.000143698 0.188968 0.0833848 0.0288474 -0.00355741 0.0848303 -0.106786 -0.135432 -0.132412 -0.204315 0.0349486 0.0955523 -0.0412579 -0.183262 0.189755 -0.101418 -0.0391888 0.155646 0.190752 -0.0993772 -0.0210605 -0.191327 0.1839 0.207326 -0.165539 -0.08552 -0.0497775 0.208504 0.187057 0.129711 -0.201113 0.0203526 -0.207444 0.0913301 0.00411446 0.0861475 -0.199792 -0.212406 -0.0450686 -0.219004 0.129343 -0.040906 0.0321765 0.184415 0.145734 -0.125357 -0.115828 -0.0298051 0.121305 0.100009 -0.0363954 -0.0851419 -0.0088592 0.218282 -0.0892494 -0.0285496 -0.0372052 0.135029 0.0479149 0.040004 -0.112853 -0.287502 -0.0889805 0.0637675 0.297734 0.15771 -0.0414284 -0.145923 -0.0612797 -0.0610238 -0.227894 -0.292428 0.0409545 -0.0695102 -0.252877 0.156714 0.294633 0.20256 -0.055278 -0.185068 -0.21365 -0.287739 -0.0953615 0.025406 0.0234688 -0.102395 -0.0219433 0.0585526 0.0600949 0.00128397 -0.0104652 -0.19308 0.0604834 0.102299 -0.0874055 0.0223995 0.179543 -0.0741775 -0.2721 0.157782 0.161252 0.113671 -0.0742346 0.0266726 0.273591 0.204206 -0.07624 -0.0400614 0.0897059 -0.0945375 -0.0806647 -0.0240655 -0.0223093 0.101097 0.31467 -0.0801301 -0.0501927 -0.258639 -0.0663403 0.114412 -0.00631112 0.0916258 0.234487 0.108257 -0.175832 0.112498 -0.0396077 -0.26609
GLYMA12G02240 -0.061648 0.130899 0.0147497 0.112343 0.0373584 -0.00747647 0.0850598 -0.136179 -0.194017 0.0342911 -0.0106826 -0.117739 0.18474 0.190564 0.0520919 0.202292 -0.0548447 0.338017 -0.0575718 -0.14373 -0.0277352 -0.37329 -0.238221 0.147521 -0.0675673 0.113824 0.0789579 -0.0740287 0.139459 -0.00955821 0.0692385 -0.105268 -0.228101 0.315024 0.0477786 0.00112864 -0.0602862 -0.0442562 0.21205 0.253708 -0.0305052 -0.174242 0.158105 -0.0112187 -0.000577547 -0.126702 -0.103318 -0.106609 0.133116 0.18227 -0.168727 -0.192785 0.134472 0.179742 0.137116 0.138577 -0.104941 -0.0927194 0.0174086 -0.0310262 -0.174357 0.108379 -0.0891587 0.0854948 0.0670397 0.188996 0.0246142 0.0212926 -0.173772 -0.0786314 0.0902948 -0.0747554 0.195448 -0.163837 -0.048755 0.0618871 0.0192253 0.0278365 -0.0990612 0.388738 -0.0208741 0.35253 0.0574914 -0.250344 -0.0869989 -0.0259802 0.142956 -0.0271459 0.07869 0.0154419 0.00223657 0.0336042 -0.222321 -0.395906 -0.109615 0.0399287 0.00429569 0.252605 -0.016593 0.0956281 0.11474 0.0958551 0.169368 -0.0625459 -0.258339 -0.0631985 -0.213423 -0.0379256 -0.0351819 -0.0835954 0.169897 0.0119796 0.177223 -0.221399 -0.0374811 -0.172499 0.029931 -0.221764 -0.0651657 0.0330888 -0.165845 0.0331414 -0.060956 0.102 0.0502568 -0.121492 0.15044 -0.110151 -0.127886 -0.215668 0.0809019 0.295862 -0.104981 -0.00185733 0.194293 0.0508916 -0.0292857 -0.424497 0.266883 0.0118494 -0.386293 -0.0480844 0.056646 -0.296859 0.238685 0.383478 -0.117344 0.199534 0.157924 0.327151 0.274599 -0.234437 -0.0235718 0.407086 -0.00684143 -0.201823 -0.248648 -0.376669 0.0727205 -0.285474 0.11913 -0.106167 -0.237476 -0.175337 -0.123174 -0.273513 0.0523132 -0.0878998 -0.170289 -0.371498 0.306283 0.0644493 0.22564 0.14682 0.151995 0.0809024 0.285897 0.496501 0.0895329 -0.0246661 0.0433418 -0.0555179 0.325694 -0.503605 -0.063394 -0.0380019 -0.178613 0.0299625 -0.0488535 0.110807 -0.0475468 -0.14203 0.173371 -0.132272 0.2972 -0.21868 0.269169 -0.32738 -0.0356081 0.0377958 -0.271478 -0.0439035 -0.128847 -0.106013 0.102184 -0.39008 -0.0290758 -0.119425 -0.13068 0.060695 -0.297297 -0.125186 0.0925315 0.20809 -0.355237 0.227909 0.376312 0.213192 0.0167098 0.278838 -0.117745 0.20352 0.0545167 0.0388326 0.113256 -0.175768 -0.0188418 -0.139474 -0.243505 -0.169908 -0.179985 -0.0928073 0.117718 0.0501406 0.0132947 0.04953 0.15596 0.158512 0.136958 0.146251 -0.151552 -0.242407 -0.0995208 -0.0694802 0.00636229 0.116713 -0.0510235 -0.168886 0.0897108 -0.264664 0.0531477 -0.191632 -0.0875883 -0.127 -0.0293965 -0.202956 0.219499 -0.202249 0.0403773 -0.00111244 -0.0442121 0.0187851 0.136695 0.274311 -0.251586 0.070261 0.145904 0.0829833 0.0857377 -0.0343902 -0.0433414 -0.10339 0.0691636 0.280511 -0.0599939 -0.191572 0.492499 -0.10048 -0.0685299 -0.0359821 -0.0521085 0.250748 -0.0361122 0.14315 0.0841779 0.168539 -0.0638052 0.0544976 0.0947298 -0.157471 -0.00250119 -0.109185 -0.142926 -0.270756 -0.208466 0.0582602 -0.18598 0.0796456 0.137236 0.000283415 -0.0902796 0.100545 0.00471701 0.182608 0.224546 -0.0158266 0.312222 0.0185365 0.108724 0.157422 -0.108719 -0.01915 0.121355 0.0463348 -0.108879 -0.297764 0.023947 0.0279577 0.224724 -0.13189 0.180823 0.170338 0.0614818 -0.0609616 0.209856 -0.0985197 -0.0498793 0.133329 0.0585309 -0.0262683 0.138661 -0.120851 0.0460538 -0.287212 0.110604 -0.195863 0.0823698 -0.14737 0.0898553 -0.185589 0.198084 0.00343369 0.16561 -0.0607793 -0.465657 0.147482 0.0281413 0.00764896 0.0202254 -0.214686 0.369271 0.070286 -0.0594289 0.237608 0.121261 0.267436 -0.294001 -0.00450089 0.0468294 -0.123858 0.128509 0.111291 -0.0445013 -0.233471 -0.0555747 0.0197224 0.179311 0.00839943 -0.212914 0.0691794 -0.0265652 -0.00653957 0.00142113 -0.137613 -0.00461885 0.215855 -0.202202 0.0868414 -0.0601643 -0.266447 0.0258896 -0.043266 -0.107381 0.125756 -0.0516909 0.168903 0.136979 -0.0231454 -0.099659 0.0838146 -0.253585 -0.0761613 -0.243641 -0.234459 0.0443867 0.143683 -0.0302476 -0.161205 0.155403 -0.0866126 -0.14677 0.275237 0.0471406 -0.127968 -0.00931291 -0.23916 0.0958408 0.371392 -0.116083 -0.105856 -0.117262 0.206337 0.143119 0.151156 -0.17939 0.0892219 -0.230586 0.158756 -0.0353219 0.186973 -0.0999295 -0.215815 -0.00396968 -0.366527 0.107142 -0.132256 -0.0446966 0.295629 0.200756 -0.0711324 -0.0840068 -0.104289 0.0799355 0.0701536 -0.079961 -0.153262 0.0597995 0.0479916 -0.0358796 0.0017421 -0.0978981 -0.0337005 0.119307 -0.0155161 -0.226518 -0.309204 -0.0521117 0.236929 0.283577 0.150118 -0.0259648 -0.0735848 -0.0338663 -0.138733 -0.200302 -0.352047 0.0783433 -0.188397 -0.129936 0.17309 0.199538 0.19446 -0.0298196 -0.159433 -0.0110592 -0.389477 -0.19232 -0.0192168 0.198051 -0.100256 -0.120604 -0.112421 0.180912 0.0348399 0.0204203 -0.0997382 0.183318 0.116798 -0.055119 -0.131715 0.149108 -0.075207 -0.351506 0.110304 0.110407 -0.0178918 -0.077247 0.111435 0.200338 0.0915936 -0.1074 0.0747606 -0.0641143 -0.0911034 -0.038221 -0.2945 -0.111264 0.0783485 0.18607 -0.098833 -0.100524 -0.341943 0.0004017 0.113416 0.0505618 0.173213 0.155402 0.0480139 -0.00553935 0.205736 0.144908 -0.204571
GRMZM2G066049 -0.0628901 0.0942412 -0.48903 0.138278 -0.00176252 -0.0320979 0.0850367 -0.0546533 0.239971 -0.074287 -0.154998 0.0665311 0.376467 -0.0562345 0.24195 -0.12783 -0.322426 0.273451 -0.0448572 -0.0829318 -0.235085 -0.305017 0.114794 0.121552 0.0817351 0.00550655 -0.179694 0.282385 -0.0985023 0.00155421 0.056984 0.059025 -0.0635369 0.0613249 0.0829438 0.0979205 -0.138746 0.0621983 -0.0618383 0.121383 -0.084861 -0.13837 0.0589887 0.026595 -0.116268 0.0647386 0.0848509 -0.224648 0.172893 0.167999 -0.143874 -0.0978836 0.086115 0.336397 0.0132585 0.262744 -0.295633 -0.0374435 -0.115626 0.00954978 -0.157219 -0.00391764 -0.029494 0.0475484 0.12399 -0.0347219 -0.150566 0.176616 0.0960509 -0.0895531 -0.105702 0.0186402 -8.63105e-05 0.167654 0.104446 -0.0739324 0.0478905 0.0271131 -0.143062 0.103625 0.092455 0.264437 -0.114671 0.0655861 -0.00953534 -0.0503494 0.13035 -0.150628 0.165605 -0.215568 -0.135173 -0.120829 -0.128812 -0.201812 -0.155504 0.0154474 0.0689356 0.0674789 -0.00329858 0.119177 0.0744069 0.0151272 0.226362 0.00109486 -0.0968683 -0.112969 0.0359823 -0.00227179 0.0728123 0.221623 -0.0770257 0.00206593 0.0776443 -0.248299 0.156221 -0.301016 0.0140075 -0.0683301 0.012687 0.0650568 0.0240703 0.108549 -0.0826725 0.0209425 -0.0644962 -0.0992479 0.000569568 -0.0962406 -0.0578095 0.0786022 0.179647 0.184124 0.158248 -0.0645311 0.302061 -0.1652 -0.21066 0.0660568 0.034624 0.30757 -0.490168 -0.0429305 -0.0147924 -0.0999543 0.147264 0.171605 0.133071 0.284411 0.221622 0.13579 0.330469 -0.249174 -0.132969 0.161443 0.125651 -0.0786266 -0.185587 -0.00113842 -0.0347526 -0.13953 -0.0266255 -0.183484 -0.044774 0.00863661 0.0734985 0.0148666 0.00349809 -0.246861 -0.138684 0.0278538 0.201879 -0.138139 0.108813 0.0714186 -0.272478 0.0760076 0.0574709 0.351984 0.099138 -0.18494 0.0439694 -0.28067 0.0477633 -0.221521 0.0684912 0.030459 0.0389064 0.0701612 0.0166563 -0.0247102 0.00132011 -0.080976 0.0996676 0.181233 0.0529593 -0.260274 0.194332 -0.0215665 0.064757 0.0314997 -0.231731 -0.111106 -0.176616 -0.0602021 0.182486 -0.180871 0.129467 -0.107072 -0.00423954 0.0825101 0.167493 -0.179453 0.260623 0.0631682 -0.240035 -0.142488 0.15141 0.0502062 0.337408 0.0911441 0.0742773 0.072945 -0.400917 -0.0354985 0.178909 -0.0811608 -0.0447881 0.156106 -0.37148 -0.193398 -0.156679 0.216702 0.111055 -0.0103403 0.0775654 -0.231574 -0.126102 -0.154559 0.181248 0.0155181 0.39048 0.0352423 0.110291 -0.161358 0.179942 0.0403595 0.126077 -0.0169051 -0.126691 0.236097 -0.0722416 -0.392565 -0.188399 0.259286 -0.0384271 -0.0770643 0.162026 -0.214682 -0.0114251 0.020698 0.0775825 -0.214985 0.0769605 -0.0102696 -0.331305 0.177713 0.143911 0.267272 -0.297155 0.245721 0.0652807 0.0572336 -0.110421 -0.0506152 -0.0315411 -0.100451 0.239824 -0.00753313 0.233757 0.177495 -0.104457 0.00699955 0.112347 0.0124693 -0.0264988 -0.0347374 0.0104474 -0.160192 -0.0443734 0.104354 -0.0263977 -0.23402 -0.034342 -0.107055 0.103614 0.0860423 0.00253118 0.109407 0.0962635 -0.0263469 -0.221512 0.105853 0.062244 0.0082821 0.0343177 0.0191322 0.359849 0.129742 0.00514717 0.0655394 0.151079 -0.119705 -0.00837345 0.0654426 -0.182139 -0.342729 -0.364684 -0.273594 -0.281487 -0.0931429 0.175942 0.0741925 0.0632497 -0.0568363 0.257632 0.177131 0.231943 0.0888045 0.0181227 0.0227437 0.0873535 0.128101 0.0138456 -0.173948 0.149136 0.0529503 -0.390839 -0.0418331 -0.0919154 -0.267852 0.190889 0.173175 0.153957 0.0366046 -0.419341 0.39401 0.255173 -0.085384 0.0653277 0.259028 0.569861 -0.0861877 -0.259326 0.150458 -0.182318 0.205182 0.0571349 -0.274878 -0.0169539 0.0784028 0.260571 -0.00997189 0.103697 -0.305325 -0.111943 0.378068 -0.0261081 -0.0181682 -0.0498124 -0.172581 0.0832947 0.000737852 0.00164205 -0.241612 -0.167633 0.183234 -0.145024 0.232437 -0.108897 0.237269 0.0800886 0.0588458 0.0994149 -0.167248 -0.181421 0.0380007 0.0667941 0.0772074 -0.400976 0.071146 -0.400734 -0.0823421 0.0010148 0.0159318 0.113384 -0.048619 0.00174282 -0.37358 0.0768744 -0.372706 -0.193874 -0.147845 0.0907682 -0.204699 0.0293867 -0.345255 0.253191 0.17817 -0.0901033 -0.110697 -0.194327 0.174538 0.2405 0.0237095 0.0197361 0.43185 -0.322328 0.0983184 -0.171452 0.0300027 -0.0176885 -0.123777 -0.105675 -0.158287 -0.0471082 -0.295532 0.0342611 0.176093 0.00894663 -0.107414 0.203272 -0.35431 -0.113702 0.113067 0.1701 -0.0130513 -0.184681 0.243718 -0.0632946 -0.107554 0.0140783 0.0946024 -0.0986122 -0.119914 -0.370356 -0.276524 0.107941 0.0113921 0.133187 0.0315745 0.0763076 -0.132572 -0.0236824 -0.0704081 -0.085603 -0.18366 0.201625 -0.306528 -0.15546 0.0673853 0.0150189 0.259998 0.0622152 -0.259503 -0.0653434 -0.340722 -0.169927 -0.101607 0.0482638 0.0777987 0.0466122 -0.0515781 0.0575096 -0.150667 -0.0913714 -0.182929 -0.116267 -0.024366 -0.0913972 0.090123 0.321285 -0.149688 -0.0896858 0.220414 0.179974 -0.0782155 -0.187462 0.154314 0.167359 0.0348016 -0.00876356 -0.0487615 0.177489 0.0320455 0.11651 -0.170017 -0.222483 0.0977478 0.28871 0.0928203 -0.0371378 -0.205475 -0.0414299 0.174824 0.149039 0.12559 -0.0689505 -0.0861382 -0.270866 0.519616 -0.107247 0.0373615
GRMZM2G085509 0.021089 0.0188252 -0.0936443 0.0650668 -0.00560026 -0.0592775 0.244817 -0.031249 0.130068 -0.0802562 -0.241067 0.0197479 0.0675151 -0.150036 -0.00634338 -0.0170939 -0.0151389 -0.00824641 -0.241944 -0.109818 -0.00940893 -0.247232 -0.094141 0.128747 -0.0568919 -0.0849494 -0.0456769 0.172073 0.0819862 0.0497898 0.0750752 0.0076007 -0.0684913 0.255349 -0.0303216 0.0822018 -0.396147 0.0774572 0.030242 -0.121921 0.121392 -0.208223 0.0218858 -0.0684496 0.138222 -0.0848964 -0.167423 -0.0277892 0.141284 0.0498661 -0.322809 -0.0510847 -0.0290548 0.41507 0.14704 -0.12295 -0.0894634 0.00231458 0.0358292 -0.061109 -0.0379093 0.277012 -0.0787813 0.232016 0.0573783 0.106061 0.0393594 0.0175139 0.164888 -0.405578 -0.0371926 0.0846073 0.051853 -0.0932941 0.0269973 -0.0513754 0.015194 0.0564176 -0.096307 0.0779144 0.0522166 0.134048 -0.000839649 0.02425 -0.0826973 -0.0933932 -0.0428767 0.0322995 0.0245867 0.0239105 0.0154995 -0.10036 -0.0232473 -0.159061 -0.22423 0.0146022 0.0135425 -0.00223015 -0.00926737 0.0696319 0.166568 0.0977238 0.0665481 -0.0760529 -0.0877419 0.0993111 -0.148627 0.0833938 0.0237663 0.0672443 0.253879 -0.0197219 0.0491022 -0.139148 0.0396046 0.0247282 -0.120107 -0.170234 0.1946 0.000363132 -0.0730638 -0.0471979 -0.075381 -0.0685784 0.0902015 -0.0587289 0.153272 -0.24501 -0.0899873 -0.171451 -0.0769083 -0.0635205 0.0270421 -0.0693186 -0.0321641 -0.0177887 -0.0568933 -0.0736058 -0.16228 0.077866 -0.302839 -0.0420344 -0.0306126 0.00276352 -0.0310766 0.0327447 -0.00746245 0.0205178 0.0537839 0.100258 -0.0366898 0.0937016 -0.011339 0.106181 -0.101306 0.0608427 -0.195776 -0.0860619 -0.0559144 -0.0029965 0.0511589 -0.121631 -0.101651 -0.235445 -0.00314042 -0.161305 0.109432 0.0711445 0.0877409 -0.104204 0.109283 0.213859 0.217971 0.0985016 0.0462569 0.0274166 0.14841 0.257299 0.0911823 -0.022237 0.0850207 -0.230056 -0.0434873 -0.153491 -0.0794311 0.0632019 0.0367848 -0.0184368 0.245273 -0.0153255 -0.0594162 -0.0096642 0.032575 -0.0411722 -0.0408014 0.0017559 0.254936 -0.0685866 -0.0714348 -0.0340135 -0.186614 -0.119815 0.0345968 -0.0790342 0.0560893 -0.239584 0.125442 -0.12335 0.0359551 -0.155452 -0.0712335 0.0447065 0.181498 0.021137 -0.20672 -0.00126037 -0.0382422 0.0535237 0.0674605 0.0592118 0.037668 0.0322845 0.0114466 0.107784 0.062882 -0.0609268 -0.119645 0.120138 -0.294252 -0.121727 -0.0522732 0.0579369 0.237011 0.0137664 0.10072 -0.0450671 0.0809876 0.0994965 0.141811 0.0546241 0.0404042 -0.214725 -0.0619516 -0.0551357 -0.0202454 -0.11594 -0.0059756 0.0648484 -0.00516388 0.0740124 -0.0329326 -0.125995 0.0215695 0.0330406 0.124639 -0.150247 0.130474 -0.111447 -0.000508962 0.0437501 -0.0961969 0.0275152 0.170918 0.202947 -0.177618 0.215096 0.0408645 -0.105029 0.00191986 0.131933 0.0525255 -0.070843 -0.124591 0.125733 0.0575813 -0.196541 0.164381 -0.159135 0.246195 0.0928276 0.126328 0.127276 0.106268 0.145148 0.0609426 0.261027 -0.124252 -0.0114542 0.0953117 0.140371 -0.0712536 -0.11709 0.0607204 -0.144196 -0.315133 0.0839728 -0.0695358 0.202875 0.323407 0.0597054 -0.110776 0.0788258 -0.0215957 0.0575939 0.16226 -0.0432735 0.319618 -0.0581078 0.00896773 0.0980657 0.134743 0.152573 0.244335 0.00634807 -0.0600612 -0.169137 -0.00578001 -0.0231466 -0.12145 0.11342 0.0532564 0.200657 0.079333 0.0140348 -0.0218218 0.079875 0.124674 0.0439026 0.240859 -0.0406483 -0.0403384 0.111281 -0.0548693 0.0495421 -0.0151608 -0.109579 -0.101255 -0.0315161 -0.0670413 0.0516524 0.078684 0.105464 0.172816 0.0240129 0.0100313 0.000125603 0.0293724 -0.0235915 0.0456861 0.0637941 0.131621 0.00709181 0.0025655 0.176498 -0.0485438 0.0391234 -0.0880813 0.0291341 -0.00389222 -0.212655 0.126912 0.0264717 0.0681601 -0.109242 0.0107802 0.086752 0.100594 -0.0497771 -0.122419 -0.175979 0.0718934 0.00756693 0.152608 -0.212943 -0.0611881 0.12623 -0.0156275 -0.005543 -0.0276522 -0.0281406 -0.0621606 -0.0195312 -0.0131166 -0.030015 0.0292832 0.0159915 -0.105497 0.0488195 -0.149795 0.0695196 -0.143986 0.0147645 0.110644 -0.0306884 0.0465598 0.096756 -0.0113403 -0.137627 -0.0353191 0.0453489 0.0367271 0.0118791 0.0994153 0.0156373 -0.057739 -0.220329 0.0794621 0.105351 -0.150379 0.025767 -0.117518 0.241339 0.309864 -0.0229309 -0.101007 0.0871666 -0.203561 -0.0145102 -0.238809 0.0727896 -0.242667 -0.137148 0.00609128 -0.220621 0.0755494 -0.235134 0.0455871 0.16807 0.134857 -0.08291 0.0513218 -0.0396008 0.146342 0.0356225 0.0150924 0.10691 -0.333644 0.365249 -0.115161 -0.0115782 0.128094 0.123312 -0.195489 0.0577212 -0.12845 -0.3054 0.0333562 0.091333 0.198726 0.0339079 0.00695451 -0.0558111 -0.0130388 -0.00526723 -0.122172 -0.218905 0.15736 -0.0980097 -0.172497 0.214424 0.123205 0.27313 0.0511258 -0.268885 -0.234687 -0.0999122 -0.015772 -0.0787169 -0.0855731 0.102829 0.0991462 0.0709704 -0.111919 -0.0680819 -0.0918531 -0.218329 -0.0518646 -0.119829 -0.173082 -0.0142407 0.173993 -0.316668 -0.0826717 0.146028 0.167166 -0.0031334 -0.0238186 0.0318067 0.202001 -0.0483054 -0.104351 -0.0657065 -0.0304831 -0.114995 -0.0702098 0.00568402 0.113879 0.0309969 0.062123 -0.0326544 -0.100358 -0.214853 0.0120292 -0.0126153 -0.142032 0.0945983 0.11675 0.0331126 -0.064303 0.242788 0.0817043 -0.0718396
Q94A65 -0.0278528 0.160721 -0.0191407 0.187161 0.10726 -0.0693799 0.233402 -0.100544 0.168826 0.0782189 -0.125958 0.0332655 0.0659284 0.00809938 0.0526334 0.00195788 -0.0144565 0.028118 -0.0412986 -0.0617543 0.0461033 -0.0262702 -0.15265 0.10065 0.00550803 -0.166372 0.105222 0.106147 -0.0100139 0.121347 0.0727371 -0.0346859 -0.0407036 0.0804558 0.122333 -0.087257 -0.0721754 -0.00438405 0.0149937 0.0269221 0.0777603 -0.0685946 0.0303282 0.0509637 0.0358509 -0.0708199 -0.0102858 -0.165415 0.0434724 -0.0294656 -0.330316 -0.0180293 -0.0979496 0.104907 -0.00313462 -0.0813879 -0.00493085 -0.136349 0.000830221 -0.143591 0.00236135 0.172845 -0.28732 0.164413 0.156225 -0.0102758 0.0525548 -0.175841 0.0757184 -0.0816806 0.0744414 0.0277621 0.00417947 -0.0985473 0.072373 -0.058238 0.0593874 0.191279 -0.174373 0.162968 -0.0680008 0.236682 -0.0183101 0.0103236 -0.00299759 0.129089 0.0674265 0.0464248 -0.0136703 0.0533786 -0.0642878 -0.177246 0.0125857 -0.0638847 -0.0568808 -0.0488443 -0.0998461 0.0698924 -0.0186831 -0.0489755 0.105911 0.0832329 0.0692113 -0.0703842 -0.0847341 0.0178068 -0.0992362 0.059897 -0.0439041 -0.120088 0.149982 0.0495397 0.0273836 0.0776788 -0.00732815 -0.122952 -0.169223 -0.0836083 0.0948985 0.0961867 -0.0252961 -0.105453 -0.289062 0.0163127 0.0638266 -0.107602 0.140937 0.04955 -0.207031 -0.0728661 0.161329 0.0465382 0.106639 -0.0279037 0.0692004 -0.135575 -0.113241 -0.264218 0.0469454 -0.108799 -0.446463 -0.0666322 0.0987604 -0.117396 0.039354 0.279378 -0.0167801 0.166578 0.163564 0.148458 0.0489219 -0.0556264 0.0392856 0.183391 0.171448 -0.0366766 -0.252952 -0.0854994 -0.0535014 -0.0931833 0.063067 -0.188573 -0.22083 -0.180501 -0.206532 -0.2925 -0.0360489 -0.089056 0.119757 -0.0636031 0.175308 0.0888085 0.17215 -0.0507393 0.0673839 -0.0334772 0.00979009 0.309445 0.238286 0.137813 0.0303186 -0.0355683 0.205411 -0.123825 -0.159142 -0.000127112 0.00388927 -0.0963539 0.23284 -0.0156797 0.0556473 -0.183465 -0.0757213 -0.0636108 0.158916 -0.0115914 0.0845334 -0.022802 -0.221473 -0.0166871 -0.262988 -0.192617 0.00885902 -0.0174409 -0.0520469 -0.112325 -0.0899387 -0.0915527 0.0238482 -0.0179837 -0.0720785 -0.00898896 0.0527235 -0.0266314 -0.196661 0.149562 -0.0162629 0.0368925 -0.0340116 0.0508922 0.060529 0.0247059 -0.1032 0.1678 0.148257 0.000856876 0.10547 0.0138742 -0.154003 -0.057016 -0.0649108 -0.00497842 0.144842 -0.0555844 0.0336432 0.0651672 0.143903 0.100707 0.0931687 0.0442439 0.0908362 -0.0902988 -0.12441 -0.0051819 0.149729 -0.0243574 0.0548727 0.0203939 -0.0659385 0.0132855 -0.220491 -0.215204 -0.0724233 -0.0939611 0.0529367 0.0213932 0.249895 -0.063383 -0.00404385 0.045386 -0.146441 0.00405149 -0.0304546 0.104418 -0.0696531 0.213623 0.0311688 -0.068643 0.0140691 0.151251 0.0164142 -0.0977746 -0.211408 0.0450426 0.0849542 -0.154723 0.272687 -0.0563964 0.138619 0.159448 0.0097537 -0.0552092 0.140662 -0.0437236 -0.0129435 0.24759 0.0590042 -0.095607 -0.0174014 0.13574 0.0377524 -0.0597878 0.0818567 -0.257467 -0.126034 0.195692 -0.129276 0.056499 0.139498 0.034976 -0.156546 0.0285845 -0.00773763 -0.0354254 0.195435 -0.0213935 0.104438 0.0660015 0.014472 0.0444266 0.1263 0.0647411 0.0157139 -0.0285558 -0.0322164 -0.143147 0.0353377 -0.132802 -0.0248566 0.0129486 -0.0253901 0.0111674 0.136437 -0.0900338 -0.0294612 -0.0217238 -0.0563405 -0.0757807 0.0818333 -0.0981518 0.0401702 -0.000309558 -0.00985487 -0.00755438 -0.0335265 -0.140054 0.0213026 -0.0808209 -0.0913108 -0.188978 0.105083 0.0399905 0.133439 -0.0131733 -0.193665 0.0036487 0.00136816 0.0157149 0.120235 0.048214 0.178648 -0.0227952 0.0599212 0.124472 -0.0462132 0.0792441 -0.123775 -0.101485 0.176274 -0.15259 0.106544 0.0980549 -0.0970782 -0.215279 0.0522944 0.140832 0.240917 -0.11615 -0.261415 -0.125705 -0.0310591 -0.0100715 -0.0483347 -0.0350799 -0.0231191 0.0712884 0.00682735 0.085996 -0.0512232 -0.100706 -0.0824435 -0.019673 0.0733808 -0.0447182 -0.0206774 -0.0278733 -0.0563761 0.0947977 -0.177798 0.00784011 -0.196167 -0.0465702 0.0429875 0.0012067 -0.0175231 0.0820951 0.0530856 -0.133415 -0.0180055 -0.0498524 -0.0896058 0.0320146 -0.0111513 0.0500233 -0.0203631 -0.045828 0.0296635 0.237961 -0.0387541 0.0298499 -0.0641983 0.0263362 0.173726 0.0673041 0.0276784 0.103039 0.0582729 0.0324646 -0.0584847 -0.0694186 -0.239397 0.0170608 -0.0978687 -0.164708 -0.00280166 -0.101677 0.105844 0.0909643 -0.0860067 -0.0656161 -0.167341 -0.139409 -0.00242815 0.0357332 -0.0553335 -0.0701564 -0.101534 -0.0114851 0.0531061 -0.00916085 0.175813 0.0436103 0.079129 0.0375594 -0.0440195 -0.16666 -0.0295712 0.0159505 0.0680532 0.0956597 -0.00371511 -0.231316 -0.0840729 0.0822224 -0.0207627 -0.0642602 0.0523439 -0.170727 -0.127118 -0.00939514 0.120669 0.103644 -0.00216438 -0.0794046 -0.0135606 -0.113804 0.108225 -0.0270833 0.0724849 0.176171 -0.00498 0.112425 -0.0105928 -0.0488398 -0.0823908 -0.13305 -0.0712009 0.00281741 -0.00123185 0.0389663 0.0676285 -0.099264 -0.071142 0.0817066 -0.0312346 -0.00654763 -0.0310019 -0.0642629 0.0680338 0.0500335 -0.0166029 0.109467 -0.0242825 0.0206121 0.0469475 -0.0917851 -0.145514 0.0261386 -0.0146242 -0.00678363 -0.172781 -0.155705 -0.164303 -0.0576029 0.00586774 0.0364061 -0.048066 -0.102088 -0.0825624 0.0302387 0.046509 -0.0202478
SORBI_3002G025500 0.027281 0.0229144 -0.191868 0.131239 0.0119239 0.0857596 0.00845455 -0.0766711 0.0811863 -0.122508 0.10525 -0.00905274 0.0668781 0.070694 -0.0479306 -0.058692 -0.0327853 0.0424818 0.016385 0.0508482 0.0316648 -0.124333 -0.0616401 0.125637 -0.000816067 -0.0600651 0.00739829 0.0985718 0.0334338 -0.0496965 0.0179062 -0.0462663 -0.0768106 0.0336099 -0.0629933 0.0894663 -0.111792 -0.0091486 0.0684061 0.0261768 0.0416901 -0.107621 0.0271743 -0.169638 -0.0190787 -0.0199721 -0.0640374 -0.0498658 0.1856 -0.0764814 0.00357111 -0.0318613 -0.0586307 0.0652448 0.145994 0.10364 -0.0825035 -0.116869 -0.155536 -0.00168246 0.104909 -0.0311959 -0.193451 -0.0599862 0.160503 0.0486429 -0.0735954 0.0435528 -0.0707126 -0.195133 -0.0509544 -0.111993 0.0474453 -0.0573848 0.0236277 0.0212083 -0.0196971 0.0197993 -0.0480473 0.183549 -0.00180167 0.11729 0.172855 -0.0134228 -0.0386136 -0.0103181 0.0710767 0.0372138 0.101918 0.00377602 0.0697119 0.0171013 0.0653858 -0.0220494 -0.188736 0.0473561 -0.0128079 0.136643 0.0119342 0.148377 0.173993 0.137244 0.0101403 -0.130934 0.0343075 -0.0392002 -0.211796 0.136496 0.014595 0.0816976 0.00832489 -0.0695829 -0.107592 -0.154754 0.0986841 -0.0946947 -0.183338 -0.0333677 0.104119 0.120592 -0.00214457 -0.207566 -0.228357 -0.0277209 0.0242894 0.079369 0.123272 -0.159562 -0.0735639 -0.125217 -0.0573672 0.0649606 0.0563426 0.0186142 0.0932487 -0.094518 -0.137812 -0.178728 0.118612 0.141522 -0.270955 -0.183023 -0.0700763 -0.277305 0.164495 0.0706819 -0.0420189 -0.0129808 0.203729 0.204063 0.0726631 -0.109671 0.0792116 0.0274386 0.0160507 0.0372302 -0.0399824 -0.0952295 0.0473283 0.00268462 0.0572092 -0.157195 -0.231126 -0.111456 -0.0392025 -0.0767611 -0.0472573 -0.102419 0.146016 -0.0971129 0.174018 -0.0699954 0.127471 0.116437 0.084228 -0.0537501 0.223319 0.23501 0.0811731 -0.0806892 0.0474043 -0.108218 0.199049 -0.195268 -0.0726008 0.00632296 -0.114766 -0.0595738 0.0850831 0.0941337 -0.0363047 -0.112314 0.176101 -0.063904 0.14714 0.0240947 0.258751 -0.0925056 0.0178676 0.121376 -0.112148 -0.0594124 -0.211778 -0.140822 0.0811425 -0.126998 0.0636428 -0.107598 0.116314 -0.106704 -0.160687 -0.0612896 0.072365 0.164561 -0.0541492 -0.12496 0.0787775 0.0533494 0.0871103 0.128295 -0.0318991 0.0177905 0.00477487 0.0240595 0.0455241 -0.0394271 0.0834087 0.0320707 -0.119933 -0.156692 -0.0499619 0.162918 0.0643176 0.00169918 -0.00510275 -0.116312 -0.0226216 0.0457725 0.0481901 0.0295967 0.0723923 -0.0356404 -0.072265 -0.0782562 -0.0639618 0.0496762 -0.0977267 0.0540284 -0.109694 0.0433987 0.199284 -0.147614 0.0011185 0.0278763 -0.0307996 -0.112286 0.0880158 -0.208203 0.00179781 -0.0590582 0.0319999 -0.0441247 0.206298 0.109427 -0.060536 0.167403 0.0732987 -0.0390301 -0.112002 0.0768762 0.204477 0.06859 -0.0862532 0.0861006 0.0712853 0.00961212 0.2131 -0.0384054 0.0660619 0.0707268 0.0142815 0.0996609 -0.0168416 0.03485 0.112512 0.122338 0.0178393 -0.195799 0.0841959 0.0190222 -0.0043649 0.081849 0.000130139 -0.15006 -0.0418348 0.0210612 -0.0595232 0.172533 0.119086 -0.00616613 -0.0625585 -0.015859 0.00514203 -0.00336043 -0.00386566 0.11702 0.0852261 -0.0256062 -0.135394 0.122778 0.105556 -0.0377408 0.0924515 -0.130854 0.0320893 -0.202598 -0.00907551 -0.0706375 -0.0825375 0.0531132 0.165613 0.0495489 0.104627 -0.12241 0.0843084 -0.0685632 0.055799 0.130124 0.0750213 -0.0136891 0.136518 0.136973 0.0452851 0.0534238 0.00574782 0.0234955 -0.229411 -0.135384 -0.138147 -0.050297 0.234186 0.095848 0.215449 -0.0346733 -0.0845766 0.103979 0.0782649 0.0536724 0.120031 0.156781 0.237092 -0.0391768 -0.0710184 0.198595 -0.169401 0.0586311 -0.149371 -0.090791 0.000833389 0.0214301 0.0748077 -0.0222219 -0.140228 -0.050411 -0.0903777 0.0344393 -0.0821903 -0.0109879 -0.0727902 -0.190269 0.0772382 -0.0809258 -0.0279846 0.00623869 0.0441588 0.198842 -0.00778141 0.0192195 -0.0334843 -0.0730873 0.00943655 -0.0476295 0.0108599 -0.0209792 0.0786619 0.0384783 -0.0424416 0.172934 -0.162782 -0.0702282 -0.162292 0.0192771 0.103191 -0.0724623 -0.00647603 0.0670825 0.0725536 -0.0514804 0.0712126 -0.144242 -0.0952343 0.0795009 0.0712839 0.00516562 -0.0904102 -0.0197992 0.030884 0.0730364 -0.0264597 -0.0696969 -0.00656662 0.144971 0.10937 -0.0161792 -0.00131398 -0.0472911 -0.0608719 -0.0411802 0.103202 -0.00497617 -0.0980892 -0.0982291 0.0163764 -0.0710132 0.034362 -0.124998 0.00652331 0.0461574 0.0364601 -0.164016 -0.0521854 -0.057862 0.0393595 -0.0295482 0.0181793 -0.095509 -0.117043 0.101565 0.0298987 -0.0917127 0.0492665 0.0827621 -0.0183598 0.010341 -0.0020216 -0.188613 -0.136615 0.0621434 0.342848 -0.0681301 -0.0283209 0.0312855 -0.037067 0.0179302 -0.172817 -0.0855559 0.0271089 -0.153028 -0.0958382 0.17537 0.0419928 0.0438905 -0.0812896 -0.175306 -0.00251253 -0.0288146 0.0289537 0.0453699 0.0571701 0.0619113 0.280647 0.113062 -0.0610338 -0.058261 -0.00166477 -0.131119 0.017629 -0.035021 -0.0100077 0.0460382 0.0275059 -0.129725 -0.0832179 0.0893773 0.0128016 0.0183789 0.00299853 -0.0401256 0.114955 0.099545 -0.0635263 0.0431686 0.0264777 -0.00826229 -0.148791 0.00345126 0.0821513 0.0536139 0.0298568 -0.0142333 0.0504885 -0.0470912 0.0391055 0.0382174 0.000470654 0.0985544 0.00134767 0.0243614 -0.0196652 0.111145 -0.0354537 -0.0800354
